{
  "n_layers": 3,
  "layer_sizes": [
    784,
    100,
    10
  ],
  "activation": "logistic",
  "out_activation": "softmax",
  "weights": [
    [
      [
        -0.009230599845819969,
        0.009531288362481575,
        -0.04443269703724529,
        -0.014421434487594184,
        0.03326927475595707,
        -0.0033596531539258913,
        -0.01063223823091196,
        0.04577894689198715,
        0.016682555450469486,
        -0.03912543527273394,
        -0.017353150365703042,
        -0.020613263069695957,
        -0.008863768143508815,
        -0.039053468638725455,
        0.009280541920021621,
        -0.03739599897664952,
        -0.04123465391281974,
        -0.0008820728376389449,
        0.02236505820882945,
        0.015136731950383515,
        0.04226903770937072,
        0.041045185154468936,
        -0.02695567137241968,
        -0.02254230336502545,
        0.03228056969890717,
        -0.025550022983423615,
        -0.026836716198828346,
        -0.039935570303403195,
        0.015931030425707222,
        0.018598757338576452,
        -0.03483116098422507,
        -0.03865707431198456,
        -0.04716491829848994,
        0.00791202083777361,
        0.011290472457222618,
        -0.03501321613879548,
        -0.04562761408486371,
        -0.021609699806287127,
        0.027106360001866746,
        0.03715563241454915,
        0.020702816399925526,
        0.0074895971643390916,
        -0.024217107222822,
        -0.03022637536157541,
        0.010182299852563094,
        0.037969296394175865,
        -0.0329066058364782,
        0.029356799364588636,
        -0.040427544577011046,
        -0.0031267583183820077,
        0.025508654208158166,
        -0.02141467670499752,
        -0.01622126474652572,
        0.044062997524550396,
        0.0037642192405522696,
        0.013589540639482697,
        -0.027593737604474623,
        0.019687068308505674,
        -0.03672500654609396,
        -0.025048204046093696,
        -0.002910442064636716,
        0.022558984277474253,
        0.0031635551167881527,
        0.029371919117662824,
        0.0291558848306145,
        0.04141144852014209,
        0.013598860259190219,
        0.03902924500073446,
        0.02811211213340156,
        -0.03277027147999354,
        -0.03317195012639656,
        0.0211194761497897,
        -0.02457437106116534,
        0.03547952404518532,
        0.027831484205792116,
        -0.023742586590153103,
        0.0025614441956806353,
        0.02044070297663433,
        0.040162633778049774,
        0.011314656324107568,
        -0.043104324659328556,
        -0.047476706959746824,
        -0.004883308252126583,
        -0.010529589235213981,
        0.010842742568259702,
        -0.02838507037236251,
        -0.015286794081069616,
        0.005449416387452073,
        -0.0322933579706127,
        -0.03341817207194088,
        -0.0027036807839737964,
        0.014453371576795812,
        0.011565949049584294,
        0.015733819719949152,
        0.03380216534861065,
        0.022759439325748376,
        0.0443083486904675,
        0.0009758370077827947,
        0.03948635344421576,
        -0.021905014335143403
      ],
      [
        0.004950818655168913,
        0.010639153156452917,
        -0.026126957782457307,
        -0.009948202347732176,
        0.0035377683604535617,
        0.02884306504975269,
        -0.033165344694180886,
        0.004000134321981908,
        -0.03144513206073921,
        -0.00949248342175417,
        0.022928823049521783,
        0.002146071314853788,
        0.03991761179347157,
        -0.03753432981807332,
        -0.030671642609793503,
        -0.02529638089665302,
        0.022108817674573837,
        -0.007285640744962462,
        -0.008705618851747123,
        0.005781255782169868,
        0.004632466788287252,
        0.03223871312873088,
        0.04493331916780765,
        -0.025195565358885307,
        0.029488567557394093,
        0.008229961617383394,
        0.03736351777526543,
        -0.016657728818027313,
        -0.03731722443040912,
        0.0012493898666538254,
        -0.03962088551916085,
        0.040541853426791376,
        -0.015002308006948501,
        -0.023131991467278287,
        -0.020643608096502855,
        -0.036992534454699445,
        -0.030250448884483087,
        -0.0072934144804786116,
        0.02551246594116065,
        -0.010237969721129996,
        -0.003912902989411273,
        0.015308636174327204,
        -0.009634049204826784,
        0.030251485578249703,
        -0.008819822138953916,
        -0.03580287604378176,
        0.04281528504877851,
        -0.046162171113701383,
        -0.0217246275970595,
        0.039705602389559155,
        0.040769407375298425,
        -0.007997788320105639,
        -0.04500040688079904,
        0.04538733617213415,
        -0.013302214301325515,
        0.015003357861541613,
        0.04338716128186869,
        -0.04371823381188019,
        0.01409821958524335,
        0.04121538788078874,
        -0.0357075709691181,
        -0.011936568218082812,
        0.003057671750983861,
        0.029501215792245274,
        0.004309548864198719,
        0.04399224490091595,
        0.00758362257084992,
        0.005658071045577584,
        -0.020295284981500128,
        -0.022178220420847036,
        0.006662507117917336,
        0.047090489315786854,
        0.03172767947044591,
        0.0007668001708404226,
        0.04003612232426151,
        -0.040846894121966466,
        0.0019038540301533245,
        -0.01068756564122863,
        -0.042658106999285975,
        -0.044191918046273086,
        -0.02199362523572568,
        0.004102224548643886,
        0.015336860389801298,
        -0.0046835890083727835,
        -0.0032552039158520343,
        -0.04411031858217595,
        -0.015495919347396834,
        -0.022152237748206294,
        0.025565648587044798,
        -0.019140564736530166,
        0.006981842101592207,
        -0.023543475362410568,
        -0.0018503925867903656,
        -0.031513460170707074,
        0.0285790070828467,
        0.010572654822904917,
        0.010427045335746416,
        0.03191497214238811,
        0.019251161818770804,
        0.04668644343053879
      ],
      [
        0.010674203600334602,
        -0.011381783364448787,
        -0.02955307586162204,
        0.03423077957949609,
        0.044820108016186654,
        -0.009082302791074718,
        0.038394626926311584,
        0.0025124464059538996,
        -0.007458044249950524,
        -0.024853462349428104,
        0.015132785907859108,
        0.03926246015028448,
        -0.04092619139904244,
        0.016022462491161845,
        0.019847896296345115,
        0.02552097788645691,
        0.03911574117155515,
        0.01810726004577833,
        0.004694701532388427,
        0.023639966528080408,
        -0.02627156587684187,
        0.0150732697119807,
        0.04395589175916897,
        -0.011924235851318127,
        0.04712424056484328,
        -0.0147019895231938,
        -0.030893738529318912,
        0.038556074032975,
        -0.0053607196298723105,
        -0.028559109307335732,
        -0.02025708841421821,
        0.040427422122833116,
        -0.01615071187416198,
        0.009000940425318928,
        0.024936752222469074,
        0.03945553665199618,
        -0.015845976251363778,
        0.035238794231259495,
        0.03167320247607621,
        0.04203907674079612,
        -0.02391735843010699,
        -0.012728046669038996,
        -0.023796310048782607,
        0.003388128830997328,
        0.04464396453337069,
        -0.04390862101211597,
        -0.03492451403836842,
        0.008858335760480729,
        0.04458674484936617,
        -0.01462844790229108,
        0.0073224495752908115,
        0.005990638847910124,
        -0.031526583521781316,
        0.014713667906652914,
        -0.00918369445292368,
        0.033724378841833644,
        0.009692877473489188,
        0.008159256592977854,
        0.0325030393203165,
        0.0008763890120107381,
        -0.0236882068473409,
        0.023761622133087346,
        -0.01761798308179129,
        -0.007304284900071209,
        0.02815816053386853,
        0.04009305770877007,
        -0.009613822496098653,
        0.04620047457133479,
        0.027053164473157535,
        -0.00011186420888714415,
        0.019443379951478858,
        0.016537296871188416,
        0.014525534019082121,
        -0.026479097489758976,
        0.0018772974983751768,
        0.04314551034795749,
        -0.03877353953773821,
        -0.046078706368598746,
        0.0012980537059079957,
        0.009877572451990467,
        -0.013781374616233756,
        -0.004167659393796851,
        0.01209195966238464,
        0.009746144850500288,
        -0.037205354888658976,
        0.007450539388339642,
        -0.000277569737367106,
        -0.016250262372099214,
        -0.01165626495092106,
        0.0007554050480134414,
        0.03891435094034671,
        -0.03340920844260009,
        -0.009642192913464742,
        -0.038975437208633376,
        0.023813505627178804,
        -0.019904497480921466,
        0.03690667245209446,
        0.03603207043963092,
        -0.009785514034516126,
        0.04368124272709645
      ],
      [
        -0.02144846679824509,
        -0.027557590455844837,
        -0.006466635742427092,
        0.007731505933196644,
        0.00531425325946813,
        0.030712442101976628,
        -0.012652372977822646,
        0.0027256707259418413,
        -0.0016565352788019275,
        0.016328339038282298,
        0.032601305241735774,
        -0.03041211076538635,
        0.034727091804655386,
        -0.02976221433481073,
        -0.04498375474845805,
        0.0372527343063079,
        -0.03239110741641921,
        0.007672335226675342,
        0.018775046795860624,
        0.005582755893893174,
        -0.041693717183090465,
        0.0261090480057315,
        -0.018777049671314737,
        -0.04368140792536524,
        0.009914649837250166,
        -0.04610060552327142,
        -0.006022598478198124,
        -0.012933272697820583,
        -0.022640826458911148,
        0.04107408569875924,
        -0.00730544061726934,
        0.043877242209296785,
        0.002087159206134435,
        0.03335509915994549,
        0.029214091862535596,
        -0.0035219307720094043,
        0.01610982681618523,
        0.0003753942266158848,
        0.0034390710597807963,
        0.04476600368671983,
        -0.04139585429694671,
        0.04705941396357969,
        -0.03881327724810301,
        0.03814432195032914,
        0.03618745074902948,
        -0.03408274282395127,
        -0.044574210384215406,
        -0.0013436472654121527,
        -0.03120240353763141,
        -0.007209428608453306,
        0.016892052774704548,
        -0.03879150801675821,
        0.008094336478544954,
        0.039810817251141314,
        0.004798581420695788,
        0.03413214066082554,
        -0.04315092811382882,
        -0.03311424994406102,
        -0.037854342180490615,
        0.024354098968800756,
        0.03526339416177565,
        0.03487268049978986,
        -0.0018567464664216787,
        0.03289396665413751,
        -0.028423361603429356,
        0.0001586674924402617,
        0.022110203350377316,
        -0.04338999639729267,
        -0.01781277401324424,
        0.013883887371748616,
        -0.024976941438171137,
        -0.031185197952408473,
        -0.0017024532031507085,
        0.04400414747078271,
        -0.017671789738782598,
        0.04481088891874878,
        -0.02959497407842238,
        -0.009477328114102308,
        -0.021853623533874836,
        0.04619306128255493,
        -0.02784044481268377,
        0.010716650647976405,
        0.015622861982808642,
        0.04714137722985061,
        0.009097899434000934,
        -0.0097667822154487,
        -0.008453684702886044,
        0.01000115683359354,
        0.04139810445838267,
        -0.03002801770343448,
        0.019331720668270234,
        0.024589143150740955,
        -0.01712534592452312,
        0.019722887905092492,
        -0.015152175627694378,
        -0.02877491055257009,
        -0.045584707356614136,
        0.04124241832220837,
        -0.030534610114384398,
        -0.0008965926123497604
      ],
      [
        -0.026604516735012202,
        0.04218039717555311,
        0.045017850456605266,
        -0.0015712460559953272,
        0.024275878267674716,
        -0.022249707682559548,
        -0.024801544465532396,
        -0.038213476254819884,
        -0.02752083020964276,
        0.04379034698730767,
        0.0032070398120198104,
        -0.042151358747306515,
        0.02420181617238028,
        -0.007008976192420074,
        0.03067265410487006,
        -0.03627492325157835,
        0.02655514563154831,
        0.042578567425221266,
        -0.018501515749859056,
        0.04568831124894151,
        0.037774607025552284,
        0.042300525905783856,
        0.03934271953467372,
        0.015414191388604007,
        0.005019545199898143,
        0.027123048710958195,
        -0.0029587021073211204,
        -0.009546837781352482,
        0.016808672377871165,
        -0.024906732903415822,
        -0.021383737578543772,
        0.01008921876154826,
        -0.0053602272225071355,
        -0.02675676449934151,
        0.04167905759487466,
        -0.018104705552023193,
        -0.011644200947768357,
        0.01801623643021673,
        -0.013395327150185965,
        -0.020175745081583138,
        0.005255482216201991,
        0.038987449884627115,
        0.0074182937486040575,
        0.021826873795737525,
        0.04133599162369107,
        0.02391136271354849,
        -0.019310666718780813,
        -0.027708442118638616,
        0.04626266659286103,
        -0.020754876695598147,
        -0.020740036993213324,
        0.004879362169943895,
        0.005399997383035176,
        -0.016064467547820552,
        -0.012322877688780296,
        -0.02303101658244464,
        0.005831941041848362,
        0.039674555199688905,
        -0.04607233612357176,
        -0.03871294467657991,
        -0.0034698813373244875,
        -0.0285083161045284,
        -0.04063568249258458,
        -0.0027965235551140454,
        0.038903340117444285,
        -0.0077186926178633725,
        -0.01151883870624261,
        -0.04408507773430702,
        -0.01439626170899366,
        0.024037079025933487,
        0.027474952443232534,
        -0.029013767050557086,
        -0.02338551925709605,
        0.029078459985008877,
        -0.028913492186895918,
        -0.04591518773262351,
        -0.017342107872817546,
        0.03074922704429302,
        0.011336269780194077,
        0.012498349150080652,
        -0.03350739433572456,
        -0.008255851289195102,
        0.001289542080170794,
        -0.04024433910077182,
        0.0031854804416259087,
        -0.027627568305580094,
        0.00765865821048921,
        0.01076601309424273,
        -0.005572083803457337,
        -0.007282992418373452,
        0.021238327690528937,
        0.028505816340014017,
        -0.005948447480804562,
        0.03298940812957889,
        -0.025662524973543065,
        0.031210007453751416,
        0.03917232257078124,
        0.04250819335453557,
        0.02327275350278619,
        -0.03966245531017105
      ],
      [
        0.03095574771124127,
        -0.03283908442208823,
        -0.037789735832855414,
        -0.035457183900306284,
        0.04266008001796754,
        0.026472983768555645,
        -0.021415457526147482,
        0.02293375611238788,
        0.018978731547478273,
        -0.03980320913316903,
        -0.011626111806423499,
        0.009607154378048105,
        0.04541622883290869,
        0.0005058129987302166,
        0.027613765409494048,
        -0.016317157060983103,
        0.00010515133118185239,
        0.019680169145944143,
        0.042871105145470566,
        0.027219141718749087,
        -0.015946069874509534,
        0.01445996804252611,
        0.031143713109606414,
        -0.026450908388819958,
        -0.029656951407875793,
        -0.044969910574367195,
        -0.02048920122698545,
        0.017090663428089722,
        -0.014152255171146808,
        0.002513520715502203,
        0.04207584863968324,
        0.000116694410416846,
        0.02357730983948618,
        -0.03890878082307944,
        0.02771409035626843,
        -0.04576012038755035,
        0.03798331562302745,
        0.0449631827003638,
        0.01924913088325481,
        0.022910979409843248,
        0.026936228892568394,
        -0.005479674174191278,
        0.0003914025153875272,
        0.007599296883253671,
        0.023868758389523265,
        0.005187515735673874,
        0.03595124009716202,
        0.03573450057193921,
        0.030591225058000188,
        0.003153315592218624,
        -0.0021856779998453584,
        0.014651302026325825,
        0.03309659454386519,
        -0.04108644148574935,
        0.027546063257512767,
        -0.0013333677939467428,
        0.019851683783469094,
        -0.003003575256449958,
        0.0035691597408495355,
        -0.023764917238648004,
        0.003647603476593641,
        -0.03526560790140487,
        -0.03862991023999612,
        -0.003385079452956944,
        -0.04226821488271591,
        -0.02535959217393076,
        -0.03533145282006634,
        0.02162334484421126,
        0.0033984289107620498,
        -0.04184728206985332,
        0.040428928534346514,
        -0.04010922210121465,
        -0.0017191295119465448,
        0.0020429190276782063,
        0.006644081688623887,
        0.03165864317887809,
        0.015960368675418175,
        -0.03934036240420526,
        0.044221242805744194,
        -0.03854685202522645,
        0.007055651082030087,
        0.04432895118865737,
        -0.01302638149777176,
        0.004220381499318272,
        0.02644772296171496,
        -0.035146168267187076,
        0.03520605918816695,
        -0.03791078499392785,
        -0.03505622022946968,
        -0.04462467685281307,
        0.03839485487554054,
        -0.015607322016751121,
        0.027817926696035767,
        0.04564997887376722,
        0.03374782684387563,
        -0.044213799447866575,
        -0.04103771367319302,
        -0.030503342868709874,
        -0.031180512024263394,
        -0.021285643640945144
      ],
      [
        -0.035322545438639365,
        0.022793013791418137,
        0.009696716732188353,
        0.043402443031206855,
        -0.017092043472156752,
        -0.04034348630122107,
        -0.001066257529192417,
        0.04264980751980615,
        -0.03449494528864422,
        -0.01762646452631981,
        -0.003797742132543267,
        -0.003383135056324379,
        0.02672009677309245,
        0.036313500882076945,
        -0.019355264593168355,
        0.02130278346491165,
        0.02363274552991888,
        -0.009001237021756427,
        0.03604494839782053,
        0.008068685653407192,
        -0.011688535216547717,
        0.013033335869106754,
        0.02806683201989802,
        0.040511051350073775,
        -0.01791440761839851,
        -0.021689125467083105,
        -0.043299473113565405,
        -0.006758251751676591,
        0.03400167652127246,
        -0.0036603674576854177,
        -0.001310400445986819,
        -0.037062359048228355,
        0.04392021317887973,
        0.043946155586445546,
        0.017379855645410315,
        -0.015047977380866004,
        -0.023998738736823687,
        0.013676801357002801,
        0.03279865225004406,
        -0.03218403783536682,
        -0.04076733895971947,
        -0.04004609592366171,
        -0.03888229452291551,
        0.034355489623237916,
        0.022045062931372768,
        0.025630705427970694,
        0.039966399903169504,
        -0.020351791058289204,
        0.03290368046737309,
        -0.004264486085636297,
        -0.024426807856634168,
        0.04071869834573446,
        0.02045625394554742,
        -0.036371197171097956,
        -0.02933013777204147,
        -0.007022343156940325,
        0.022920671797004785,
        -0.04252605545257297,
        0.029143321295856662,
        -0.024821566445534984,
        0.040731610452426154,
        0.02732076418751216,
        -0.013661800442640367,
        -0.026598482654252745,
        0.006585972437624384,
        0.029225088496765843,
        0.0007289899035829734,
        0.013311572539316271,
        -0.03666533141956591,
        -0.025006729030078147,
        -0.022297464536912764,
        -0.02231062391312995,
        0.018113283356343126,
        -0.010096678799798912,
        -0.004921260131666286,
        -0.04386745270993543,
        -0.003520254754053131,
        -0.04519830417257036,
        -0.025745311999142408,
        -0.04716499816454107,
        0.040874512124626054,
        0.016148884098025573,
        -0.04256436338449954,
        0.012061217029317381,
        -0.0037946598064325676,
        0.043221692727339,
        0.006566586836656163,
        0.03286373906611657,
        -0.026411580587298214,
        0.04208549428769393,
        -0.020088166179518738,
        0.026008605855002774,
        -0.016220866388923515,
        0.04213642035596523,
        -0.0384878245119202,
        0.015327299747292444,
        0.04262742733270857,
        -0.006002092932912378,
        -0.011743308618187093,
        0.021942635718454236
      ],
      [
        0.004130424407771906,
        -0.037371756580490814,
        -0.01089871832517154,
        0.01823584222141622,
        -0.015353887020568547,
        0.026248437116599486,
        -0.04192045577783488,
        -0.03300844091147237,
        0.04399445452849501,
        0.033491827744401376,
        0.008603979069980871,
        0.01800123456266542,
        0.0033526994080421337,
        -0.036321429656401054,
        -0.028011990886465773,
        0.028187089747591668,
        -0.04123678637291805,
        -0.015232455990248781,
        0.01635015556736627,
        -0.03358549919862984,
        -0.0003203818702296956,
        0.007720588489189791,
        -0.021313319995778606,
        -0.018920119543710274,
        0.04162406159947159,
        -0.010481495194954176,
        0.03842549767720357,
        -0.019590313127637985,
        -0.0190849012344216,
        -0.005285885476361267,
        0.016250658916398184,
        0.03186751138285197,
        0.0029893961970045343,
        0.006938276412496786,
        -0.020349306012121225,
        0.011410876223589998,
        -0.03947939093506694,
        -0.005828765360052161,
        -0.03280879738451756,
        -0.026600110521148978,
        0.0204917936337821,
        -0.01248151845292647,
        -0.0021686809691381153,
        0.0018730834354818806,
        0.043696960737428306,
        0.03699315277861974,
        0.018252549572870348,
        0.017964093739853665,
        0.046013637731842694,
        -0.01572611248509048,
        0.011803105263277483,
        0.010676006555638861,
        0.003504184330836293,
        0.036189477891411734,
        0.0395961004723154,
        0.00036246322959464103,
        -0.04135740182070408,
        -0.039516737224314646,
        -0.04179254427807779,
        -0.038627591491636394,
        0.03677048591820747,
        -0.04353545669345121,
        -0.03814939380763668,
        -0.041496594505790234,
        0.022934701372073537,
        0.02237582278769328,
        -0.0002264130540552699,
        -0.014735573647398529,
        -0.013241647051606173,
        -0.01801096923426536,
        -0.02078675632542529,
        -0.038934205454174,
        0.04709831362685331,
        -0.011659822465838661,
        -0.03882862363061484,
        0.02484327325104471,
        0.025568987458247924,
        0.02025983653018527,
        0.03562297326090296,
        -0.03820151615245631,
        -0.035106798580754134,
        -0.041096469111829875,
        -0.03813009835293822,
        -0.04109762895240363,
        0.005756248703697069,
        0.019434370901640772,
        0.03932574793718798,
        -0.03689092022338607,
        0.012362610163206621,
        0.038568335960363624,
        0.01573835123872519,
        0.01592068314040848,
        0.010381615322215003,
        -0.024724265686225093,
        -0.004507321033847311,
        -0.032891539907583596,
        0.005151164512102434,
        -0.008714173760924437,
        0.032090222210428426,
        -0.0007563935747100151
      ],
      [
        -0.0057895451803301875,
        0.01697845952611971,
        0.020421446210062158,
        0.009552661019595544,
        -0.025488118683083833,
        -0.02454932896585767,
        0.0033006887818329525,
        -0.04337755741446283,
        0.030169917315947214,
        -0.041569780687229586,
        -0.03613791470865649,
        0.010145037132353768,
        -0.00550794351333031,
        0.04341313716946577,
        -0.006286548753427093,
        -0.002717703759033847,
        -0.0024947286920533507,
        -0.028153718913445296,
        0.029356802926474825,
        0.0316530771680208,
        0.007924128736138767,
        0.047332328550979484,
        -0.0046002154639679755,
        -0.03600127189365105,
        0.003697150344439013,
        -0.027871494232469315,
        -0.03672681941340807,
        -0.019347816554811065,
        0.043964872757953265,
        0.00090725128681646,
        -0.04459505165426032,
        0.0034734369267111613,
        -0.012016827205824223,
        0.0468839493015646,
        -0.043176093245046294,
        0.04549819239836063,
        -0.014810319879527958,
        0.00672468653553296,
        -0.014465263549381885,
        -0.038152872790310675,
        0.04618718813296017,
        -0.006717699342193031,
        0.04424049947553916,
        0.02676788058446027,
        -0.007738528207066634,
        -0.038972674573846615,
        0.03203566625390417,
        -0.031295771510476085,
        0.04443541911427684,
        0.04703256780425413,
        -0.02744060430703656,
        0.04203099979540288,
        0.03148704506384452,
        0.04655777717837304,
        -0.014898496421907104,
        -0.036268261198201854,
        -0.018681151717580856,
        0.01581440949404656,
        -0.038400448687758985,
        0.02584345009328999,
        -0.041123508222804854,
        0.04139513099699088,
        -0.03724687997022504,
        0.04095862301204703,
        -0.026759850925757236,
        -0.027795617782905613,
        -0.015034311391075902,
        0.024237951177999373,
        -0.03691442199259182,
        -0.021488925889268377,
        -0.0006591540214719159,
        0.03363430883654813,
        0.004135854131883747,
        -0.028420039533069704,
        -0.0007602515298579177,
        0.015578371364392314,
        0.01571104890017886,
        -0.018839098386581044,
        -0.01970782102929341,
        0.02076571924658266,
        -0.02393733009002549,
        0.009312536724566702,
        0.03061268275151237,
        0.02214553221272029,
        0.02776764542826437,
        -0.041862171067813425,
        0.034548215848069365,
        0.010369361301968078,
        0.019896279220680685,
        -0.03147977965881115,
        0.028968356016013073,
        0.014188120101650768,
        -0.034252268967251365,
        -0.0011726777832698555,
        0.008333341289907592,
        -0.03523807534545286,
        0.020817733868349633,
        0.03413800610508121,
        0.03867539117679259,
        0.007254955081934726
      ],
      [
        0.016674352385518176,
        -0.005506497854256068,
        0.02862827449033811,
        -0.009503300723064973,
        -0.028774225665405665,
        -0.023951593973904912,
        4.906682684971098e-05,
        0.04738806750072061,
        -0.021963885024345944,
        -0.009311984932304453,
        0.034190450665071224,
        -0.014392306012886527,
        0.036209548921891925,
        -0.04718891663735132,
        -0.016208114000476462,
        -0.04384947404628803,
        0.020404961677505176,
        0.0188019686402875,
        0.04061772033260351,
        -0.025737246551764868,
        0.02142777263299802,
        0.03246181008010107,
        -0.027908278768741596,
        -0.0354913836312523,
        0.010362167103946945,
        -0.03891600724085534,
        0.0348730238409796,
        0.03074429473429159,
        0.03887782190247087,
        -0.04665560706848121,
        -0.018281128083403955,
        0.03460623276640919,
        0.029217116957551907,
        0.006624657824223486,
        0.04482317373703832,
        0.019324769753956285,
        0.042030328906117,
        0.02269723717441474,
        -0.045168009160793846,
        0.027330480366172735,
        -0.04127744368933398,
        -0.040904134966893824,
        -0.031409759201805026,
        -0.012414463284256643,
        0.009945083724976109,
        -0.02598736531432339,
        0.03824236391136089,
        0.034276135513149224,
        0.02176921774618716,
        0.025486081527678405,
        0.008238977880406739,
        0.027768023850281823,
        -0.04312561921592265,
        -0.0279130847356818,
        -0.03417149246169127,
        -0.017576078431594023,
        -0.017082828181948045,
        -0.04601052341384325,
        -0.03684994287697367,
        -0.0021958114467357246,
        0.016429372222652915,
        0.006616723031979841,
        -0.03761156275253903,
        0.015152894843900418,
        0.0028647157813796904,
        0.03502945621453665,
        0.025598318777889238,
        -0.03852262066646662,
        -0.020728743145015695,
        -0.020013049360928008,
        0.031798097318224444,
        -0.04117770205853302,
        0.006885172519068771,
        0.015017649025763405,
        -0.04505282786814836,
        0.027441535624302377,
        0.027413203930808688,
        0.01748039719532514,
        0.0306225603100885,
        0.04525322195643469,
        0.04728678264370188,
        0.04329431475108001,
        0.006760435080634928,
        -0.03803916849558149,
        -0.011544591612081764,
        -0.03025087551521328,
        0.03474682274960746,
        -0.04216676400333603,
        0.0019594938120848335,
        0.04276440833713054,
        5.777607906029838e-05,
        -0.008369118380741867,
        -0.032036876534597906,
        -0.005325433083557604,
        0.006066952577019515,
        -0.02935936215077827,
        -0.04545295939265713,
        -0.04335278274956134,
        0.017164970418143844,
        0.028724721465191044
      ],
      [
        0.002430917710668767,
        0.0009248239911362893,
        0.022231303064231538,
        0.0025300187466658994,
        -0.024162446364105243,
        0.004067534283304733,
        -0.013889092827596951,
        -0.0031928818838375173,
        0.04653662189979946,
        -0.01567064844874133,
        0.001734461780515558,
        0.0450487610786551,
        0.020698051034848466,
        -0.028943469010827966,
        -0.04508941170761905,
        -0.02725311346545844,
        0.017120019201825053,
        -0.0042118236255191295,
        0.03759602692751159,
        0.0455529373532924,
        0.017752636167865717,
        -0.00610288570686278,
        0.029915235960344854,
        -0.04313592873851496,
        0.04465468247065657,
        0.012748679438189239,
        0.02151655607025845,
        -0.03388934907851896,
        0.008091331726930003,
        -0.03885492788999828,
        -0.028550655061282435,
        -0.006056503003300057,
        -0.023386158639995838,
        0.027746521329198616,
        0.026398728170206973,
        0.0013323432683823451,
        0.00803881888687319,
        -0.028544662023376653,
        -0.015846613625076993,
        -0.021032512765936328,
        0.016331013158982804,
        -0.019467798996186156,
        0.03374501273559128,
        -0.015089987491162467,
        -0.030006667989093582,
        -0.005278966420187497,
        0.023403995777625787,
        0.04473420618936646,
        -0.03906255359993608,
        -0.03163729861181836,
        -0.009631118056739904,
        0.044569358687185284,
        0.013115572557582547,
        3.173469712675374e-05,
        0.029755538830684547,
        -0.013468836419149824,
        -0.0014613220928761037,
        -0.021067312203433344,
        -0.021015206660226833,
        -0.021810004712968505,
        0.0021212427588525023,
        -0.025288008145158337,
        -0.02430544499424608,
        0.005813372985739705,
        0.03552104993380866,
        0.014086618044460002,
        -0.024720887591634454,
        0.023603381443130147,
        -0.01869769081336978,
        0.03957877646071453,
        -0.04595191392745193,
        -0.029295760289463065,
        0.03203002702700092,
        0.01894332433333357,
        0.042619280771682005,
        0.01377462264741581,
        0.026156536208496086,
        -0.036423774005900765,
        -0.02444104279812649,
        -0.04047887260962266,
        -0.01565041268870794,
        -0.012829592638259371,
        -0.04542000104054317,
        -0.022854714197648625,
        -0.023693821877460615,
        -0.015846626644581332,
        0.0443991768362596,
        0.036758211617332545,
        -0.03495387741465866,
        0.03334320743916255,
        -0.04493371584431018,
        0.033168983336340184,
        0.0206691087378635,
        -0.03552462004593857,
        -0.04437204493079571,
        0.025481492911854732,
        0.024288714879639028,
        0.03067410471187703,
        -0.017792932308148563,
        0.031062891452174387
      ],
      [
        0.01694653999551409,
        -0.01745033633260357,
        0.0010299959631309497,
        0.038234446599380745,
        0.0013009041009724024,
        0.03992667549663263,
        0.03664329180607444,
        -0.022745063658993505,
        0.03526955728034121,
        -0.03232429594371468,
        -0.01941965594764853,
        -0.04483614591210091,
        -0.007938411250755497,
        -0.035537036962336954,
        -0.030178994825848533,
        0.025199804792656134,
        0.04182247462020444,
        0.015762356763395255,
        -0.031335230472326676,
        -0.0061727184401544075,
        -0.03723181640859213,
        0.03422919705525478,
        0.019381034608673874,
        0.021734278704823477,
        0.028168800597480368,
        0.01112250051766506,
        -0.030044397381514574,
        0.040010591428191786,
        0.045213007228914255,
        -0.00724366953505544,
        -0.0004034939058043708,
        0.016263423789142736,
        0.04457548715478598,
        0.04501969103149789,
        -0.017863988550753194,
        0.015293653300203837,
        0.013933185567307053,
        -0.003954108352709292,
        -0.020509897972580533,
        0.034380076687727204,
        0.00042866950617857715,
        0.005754554334296563,
        0.03917850689540133,
        -0.0027123846520663874,
        -0.041948372781595196,
        -0.03568048713711384,
        -0.0143797734194154,
        0.01947024829817341,
        0.010752847865051337,
        -0.03108652375265025,
        0.00689081165782917,
        0.007086136213879325,
        -0.040454569742810934,
        -0.0352595391759042,
        0.018588564540925404,
        0.004684994365686649,
        0.019151385155457612,
        0.007226850567148515,
        -0.03821372798402561,
        0.03963852180992637,
        -0.014603449118895304,
        0.0042169998753222564,
        -0.004329336878005636,
        0.03678820691626711,
        0.00994793125271218,
        0.02153884613861369,
        9.404517156756392e-05,
        0.0007026278000992098,
        0.036230281265848256,
        0.016826421711283738,
        -0.005624371623709803,
        0.03194383801455736,
        0.029372044049027726,
        0.030095433652832685,
        -0.03369396591656344,
        0.03393324812277017,
        0.03156345250405822,
        -0.02551302628569146,
        0.003875401862899699,
        0.03702697638566609,
        0.016066718608445753,
        -0.016387418218372446,
        0.04552779549394172,
        0.008516741520295927,
        0.0017014762278947187,
        0.0005951880027936305,
        -0.029552529154245923,
        0.026110358318310902,
        -0.00488757312543886,
        0.009266191107946237,
        0.012091911521332857,
        -0.02764472995501088,
        -0.04738913126225235,
        -0.03681379373455426,
        -0.04751963707352259,
        -0.0206574141533302,
        0.014100623998559691,
        -0.00811032917368761,
        0.0031475842470717256,
        0.0004583156276317187
      ],
      [
        -0.04083589348360764,
        0.03541189843746594,
        -0.04566625227925599,
        0.0061113426923630814,
        0.019924811856239063,
        0.02270286724129843,
        0.03662675953936869,
        -0.007091132500834187,
        -0.038403601141686346,
        0.041371489456949496,
        -0.012819021731112936,
        -0.010280723729040889,
        0.037155015190442266,
        0.03260153860690322,
        -0.002294635364569966,
        -0.023936105731454944,
        -0.0015992843891088264,
        0.016931170169370915,
        -0.007583635834346561,
        -0.005429170418272002,
        -0.021636079307258405,
        -0.030482544867525593,
        0.010340937343047437,
        0.0039484958023979074,
        0.013098044540876612,
        0.0320945439690088,
        0.033970549801321165,
        -0.013155365255355954,
        -0.02923792260721978,
        -0.04542814546590353,
        0.04654601501517785,
        -0.02772978556250494,
        0.01904707381336121,
        -0.00039859441905336086,
        -0.04667317363390208,
        -0.011058718805602729,
        0.03900561370401278,
        -0.012498957918457499,
        0.0008941321551984349,
        -0.03860251410837094,
        -0.03867367953120803,
        0.029649355055135145,
        -0.03379665572276037,
        0.032220348446089196,
        0.02585843083242384,
        -0.014198199493960095,
        0.02456117002659634,
        0.01588005840133226,
        -0.008236237345009854,
        0.012171188438698582,
        0.024625255731718275,
        -0.002064121539078354,
        -0.0258276880968771,
        -0.02540951006501637,
        0.004265383409186818,
        0.045298366936869706,
        -0.025498365021373478,
        -0.03658419599688041,
        -0.032199004812130394,
        0.009712588592876853,
        -0.047156091017845916,
        0.02519689729812228,
        0.003827244969067155,
        -0.01570977866834656,
        -0.0010083621567899374,
        0.021009112354523192,
        0.03613973508505506,
        -0.018033279021289043,
        -0.04141012091256367,
        0.044674137659781454,
        -0.0379594373352635,
        0.015731574180256724,
        0.018241783217030717,
        -0.0008661104329140488,
        0.03542715712127437,
        0.011266214975939558,
        -0.02064694920016149,
        0.002287033204307951,
        0.005320507573310656,
        -0.0016590857498574737,
        0.03733459296076871,
        0.030027538479858173,
        -0.01468413891571045,
        0.04504955864261385,
        -0.029248933634895335,
        4.943127268304713e-05,
        0.022158109012936595,
        -0.0015679218748303107,
        0.011391127235644817,
        0.01818050588850036,
        -0.015449652007195948,
        -0.0046204174686264735,
        0.0230141235479148,
        0.04525642178207893,
        -0.046143991044613135,
        0.008317618262746929,
        0.04582936883360549,
        -0.04562845783026217,
        -0.003926925771040963,
        -0.005200425397355836
      ],
      [
        0.04532483059489152,
        0.02592308672364227,
        -0.00996262992902251,
        0.03848196890567345,
        0.00393927278878213,
        -0.009023031104197705,
        0.014652755331381344,
        0.04349071960888043,
        -0.009062920049223395,
        0.03996899546260337,
        -0.008932973013186251,
        0.012502005612896243,
        0.02767063601871132,
        -0.0038495614466225497,
        0.008026484642901866,
        0.02049711067610371,
        0.04708750850876923,
        0.03594468332456454,
        -0.018262674818436783,
        0.031911325226364404,
        0.025782793950504403,
        -0.01616300536808502,
        -0.022001137343299858,
        0.014497710748008713,
        0.018327004756193085,
        0.01619255439402308,
        -0.040955961814396605,
        0.038006807730228055,
        0.005846227466153533,
        0.0008528824269231698,
        0.0051240514871665355,
        0.04273682049911044,
        -0.03383833895000496,
        0.029401394818042995,
        0.025045201179719277,
        -0.02699118238662049,
        0.01951653556583133,
        -0.014657155300165531,
        0.028060881474854707,
        -0.0005983840858919866,
        -0.04182889283347978,
        0.014977098276839702,
        -0.012596481726614126,
        -0.0346738085818667,
        0.032702452893420476,
        -0.03456297367280854,
        0.011846532255187968,
        0.016854684655371665,
        0.03614854580583932,
        0.024517164008570447,
        0.02823952439066512,
        0.04044488013773961,
        0.0032840110998008064,
        -0.026841111848213483,
        -0.016343375670705713,
        0.04461821547935723,
        0.03745899801802145,
        0.0056021701664065015,
        -0.03598083328536299,
        0.042996450783996075,
        0.032949488705035196,
        0.007087344840034453,
        -0.003290408607578568,
        -0.007761752599912528,
        -0.0070460218170132986,
        0.021527221307605815,
        -0.008939453038835095,
        0.025651668170321378,
        -0.006351677529104521,
        0.017378660674702565,
        -0.03957098640275228,
        -0.044185474139800784,
        -0.03752511816216195,
        0.03268982277334665,
        0.006195539395394915,
        -0.0022021089264573604,
        -0.023382657283294327,
        -0.020518259222802655,
        -0.045294633051834086,
        -0.030686078581723245,
        0.0007421638596290391,
        -0.016897435939757764,
        -0.045321251400598554,
        -0.019029605334587817,
        -0.02715713254659126,
        0.01616729941097529,
        -0.03471390661412426,
        0.010736175679757105,
        -0.04026625396487555,
        -0.028716961356759968,
        0.026951945705973864,
        -0.03876001724627919,
        0.026463848250710183,
        -0.0141495991264971,
        0.02345978053050417,
        -0.013691373601738967,
        -0.008066767725309877,
        -0.022578809810610116,
        -0.021640592976890843,
        0.030725642065401137
      ],
      [
        0.0331640542195971,
        0.041405258870296106,
        -0.04572044929247065,
        -0.010158523864837524,
        0.034674782442645415,
        0.02229942097684005,
        0.01845477786575063,
        -0.016137648453241855,
        -0.005392005731183386,
        -0.04408117908664069,
        -0.0020929873973633993,
        -0.0034263316592390383,
        0.013110685410899927,
        0.004455786804921354,
        0.018798734087438655,
        0.022718057489095597,
        0.010321252401055116,
        0.017869137949801498,
        0.02568894266981921,
        -0.02663052633143141,
        0.023423964864255308,
        0.022725749377947677,
        0.02177089975596705,
        -0.036318846063727754,
        -0.03196489161905091,
        -0.024890038350808892,
        0.03539099374581738,
        -0.04348946440427321,
        0.02598876392761404,
        -0.03766963886172627,
        0.042057993866228924,
        -0.00275613530792599,
        0.028868966384915224,
        -0.019992172785719072,
        0.02635647597782986,
        0.04231514036233994,
        -0.023244811658936423,
        -0.017340275839196416,
        0.03684611032780389,
        0.031571775139129066,
        0.024685353019517905,
        -0.008988811595540203,
        0.04288493216521429,
        0.013949476260029774,
        -0.044334904110366405,
        0.02248206047989945,
        -0.03531457774901057,
        -0.018053747879202428,
        -0.027443807014982197,
        0.04579326426614613,
        0.039391235578985426,
        -0.016866427468329795,
        -0.012376433348564593,
        -0.03926051555328721,
        -0.02055005927532806,
        -0.039024617767163726,
        -0.018400634000190586,
        0.0042503446659627195,
        0.004083636106094127,
        -0.021898094992024615,
        -0.015113998798989687,
        -0.009660805150550756,
        0.04256920599940253,
        0.006278504886334543,
        -0.013454126216555982,
        -0.013082605401419159,
        -0.016622033563385544,
        -0.04705645154999251,
        -0.009030459970301927,
        0.01324901643801822,
        0.037711791991755714,
        -0.029549187406566004,
        0.03648383942039295,
        0.036166612791735296,
        -0.03415855645994707,
        0.006705737003253941,
        0.012167896300003455,
        -0.028045559958985194,
        -0.002192959363437197,
        0.01021095985615262,
        -0.013134425524577152,
        0.00477760713791622,
        0.027950384108748106,
        0.04280282266288436,
        -0.0011682895552962197,
        -0.021488058761940567,
        -0.029613603051839278,
        0.03288397128446166,
        -0.04686903345907955,
        -0.0443579463690154,
        -0.04006481818121233,
        -0.04252723115988697,
        -0.036385921465811016,
        -0.006031716137451876,
        0.01752309843366878,
        0.0001578623625571565,
        -0.029117496037256194,
        0.016625503899613595,
        0.008494666033780334,
        -0.007812925259777042
      ],
      [
        0.046919277740942095,
        -0.041596883849580414,
        -0.007826831449056288,
        -0.016318029850275372,
        -0.04029523430100624,
        -0.029331501619232758,
        -0.0028050170737503313,
        -0.04589698907898543,
        0.004519537746297979,
        -0.03298948476713789,
        -0.015111356153556606,
        -0.016551783765575517,
        0.011801527262300703,
        0.008158729638863386,
        -0.009975684960193663,
        0.004253091560397762,
        0.029759034035595235,
        0.005689241112715078,
        -0.04511050879588293,
        -0.02106752760581481,
        -0.013166813831970178,
        -0.001356817658108189,
        0.03319586475798319,
        -0.008899859287810306,
        0.0010293764638873919,
        0.0435198096779177,
        -0.0060673219447758995,
        -0.004670078316001988,
        -0.04533090867469645,
        -0.020560512418056322,
        0.024105355521272354,
        -0.006961884701184338,
        0.027740576319107316,
        0.018189371478020765,
        -0.04084824298234837,
        0.01984896612946527,
        -0.0037263452956971714,
        0.03910449345176664,
        -0.005088858395654196,
        0.04022847096952334,
        -0.04059167162302754,
        -0.009132681542266282,
        0.0016199511396781019,
        -0.043921129099485305,
        -0.004314297855855715,
        -0.03258367304004806,
        0.01721924715210079,
        -0.01234592440682825,
        -0.011806565992152261,
        -0.034574148397673636,
        -0.02077010671920733,
        -0.02021751995838887,
        0.046011226578367474,
        -0.01025525419939578,
        -0.03374013304517294,
        0.02386993226421679,
        0.009455148974129083,
        0.04422065412166988,
        0.006827636686206,
        -0.02193732432041352,
        0.043877397941788236,
        0.04120617051500872,
        0.029418878758180472,
        0.04530698049882739,
        -0.03215769545288366,
        0.012924694889855247,
        -0.008726162609271566,
        -0.009303783296369343,
        0.008397722332306892,
        0.025626640746219637,
        -0.047080038091749654,
        -0.004865271411244753,
        0.018894717940652575,
        0.029042427530957676,
        0.03369810010199206,
        -0.021916968725080265,
        0.04634132526406257,
        -0.0186807990253534,
        -0.00632884752533867,
        -0.019178130013960112,
        0.023079618028239008,
        0.017838206972253173,
        0.027365956476657283,
        0.01490239175795007,
        -0.01724206891488642,
        0.0026425247972257874,
        0.015638333103183383,
        -0.011005773604321457,
        0.006889065945561746,
        -0.01864275631428146,
        0.0021708962995085246,
        -0.028569499887243582,
        0.015867665739847655,
        -0.03280201429693581,
        -0.003855896182890053,
        0.002737146468212763,
        -0.03113552965978908,
        0.03109552268379754,
        0.022499295576412247,
        0.0213901886328799
      ],
      [
        -0.021679803677026144,
        -0.04035521087115855,
        -0.03151905424035779,
        0.03252354422714835,
        0.036832057944783315,
        0.033906575887250344,
        0.0357514324778971,
        0.03895943534120506,
        0.025071843295911132,
        0.04540169962425777,
        0.0325888367237508,
        -0.02876601635641856,
        -0.030016958346706337,
        -0.04310132355750715,
        0.030716111463687273,
        0.03701481761109911,
        0.03797120522914492,
        -0.017722406212076824,
        -0.005471331358150201,
        0.03029110995879685,
        -0.00555562094788996,
        0.01514796364504551,
        0.04036220391881902,
        0.02744399788562517,
        -0.04326503669974162,
        -0.007027585874285621,
        0.011530134165069046,
        0.01739466425165159,
        0.03357466509558662,
        0.029528685821689236,
        0.038982039129497374,
        -0.025386847150628698,
        0.01964249913084695,
        -0.02236355782111528,
        -0.004004939637553637,
        0.039784082414747866,
        -0.020614814467576237,
        0.0013468089954986743,
        0.012620240041583033,
        -0.02912662187369075,
        0.015208064145808529,
        -0.009187006061063412,
        0.01614462039298353,
        0.021767452168532823,
        0.03909699966791451,
        0.010020014122727457,
        0.03963067879867408,
        0.029030880896910503,
        -0.022366069813893177,
        -0.019782230607091274,
        0.024191228711894785,
        -0.0019118400299618665,
        -0.019446396973356265,
        -0.020406022249451646,
        -0.027320573058738966,
        0.025476178119566623,
        -0.035993803562940185,
        -0.004340101405209351,
        0.027192254823706376,
        -0.029336293057214618,
        0.004727787543381156,
        -0.04419166447367266,
        0.030801902913048927,
        0.03413428790839523,
        0.0387423376600498,
        0.0032836095792992065,
        -0.01663563178669602,
        -0.030439746522557858,
        0.02930476109083027,
        -0.009351436420246299,
        -0.014954527515601187,
        -0.03198090495218413,
        -0.01961737766598119,
        -0.012042162029018595,
        -0.045773828175142924,
        0.04301458311604836,
        0.040402196023009616,
        -0.015562207248777713,
        -0.04709061177975682,
        -0.03263004985018846,
        0.045708409996348724,
        0.013534555997600313,
        -0.020943955123174783,
        -0.004272243462363373,
        -0.047209828319085864,
        0.028421684403582597,
        -0.0034319996098454097,
        -0.04729587818560452,
        0.02909922423355215,
        -0.017838334381076553,
        -0.009039881017375366,
        0.034144580377662714,
        0.035105659411966104,
        0.026152937352216767,
        0.04347001865039016,
        -0.028754560599726066,
        0.01690472790401787,
        0.025518176619888838,
        -0.008118885444211257,
        -0.04311692356056709
      ],
      [
        -0.02638569706036943,
        -0.032973513300677035,
        -0.016941454324355516,
        -0.04532675959329612,
        0.037949483516933856,
        0.0356115841098847,
        0.0072124351426739765,
        -0.016365919408768515,
        0.0028548643329308755,
        0.023390715863380287,
        0.02823014089979597,
        -0.04719613287220618,
        0.03355481915970785,
        -0.04166335929835771,
        0.006167390221311514,
        -5.532947239406828e-05,
        -0.010880934372623528,
        -0.039327935234337724,
        0.04748565471171468,
        -0.041240546099280774,
        -0.013819473139305961,
        0.016781221460130315,
        0.04444436393262281,
        -0.009583395000430988,
        0.03972412152899592,
        0.017251495222396343,
        -0.030588318504329852,
        -0.020510855099837275,
        -0.009307166677100031,
        -0.0014153112424081596,
        0.017573854030514258,
        0.007311053110796943,
        -0.032346521361079676,
        -0.03218853196177623,
        0.022909651734138742,
        -0.016652163284301493,
        -0.03315467703628097,
        -0.009550628740657954,
        0.02327548788128707,
        -0.008411069917215266,
        0.01597090167543548,
        0.00368279793556279,
        0.03708941617505283,
        -0.027446826982347666,
        -0.008880260932674034,
        0.04137389443665324,
        0.02123725419055038,
        -0.003107311383006363,
        -0.04675875622407244,
        -0.008526978499928149,
        -0.0014441566264520556,
        -0.02240025609972326,
        0.03516254472208013,
        -0.014535964811163201,
        -0.029686168077897774,
        -0.04194981077037136,
        0.012541141222818977,
        0.02167976330715666,
        0.009842448199398926,
        0.00243644509968103,
        0.018299211293644587,
        0.008998015319388451,
        -0.00964170238651062,
        0.04578931514928085,
        0.018796952443292,
        -0.035029964665104815,
        -0.046841119819974124,
        -0.011379176909580435,
        -0.01620164318968523,
        -0.011117079618556736,
        0.02541005300050045,
        -0.00888184415167033,
        0.04264525228321743,
        0.006381225786678099,
        0.01134046765964523,
        -0.017056547326742732,
        0.04088249500921444,
        -0.027958011199216856,
        -0.018350083634543518,
        0.034887822806012915,
        0.036091474174561086,
        0.02642513912017785,
        -0.00460595895006023,
        0.03426135355491106,
        -0.011597227328954797,
        0.022308650700081412,
        -0.018267219348345194,
        0.028516214042021253,
        0.04655649552774541,
        -0.03142098195972136,
        -0.002996871446464338,
        0.020669074710250507,
        -0.013724619587453721,
        -0.030466762529515294,
        -0.04097117633782829,
        0.03147860898465622,
        0.0015159270131677714,
        0.04457265799375651,
        0.0006110535013854691,
        0.02660635705637613
      ],
      [
        0.032732810522902674,
        -0.02605743211427058,
        0.007595896176874743,
        -0.027140865953803654,
        0.001125255111651667,
        0.013407762625907375,
        -0.003255637958612794,
        -0.024618521865790013,
        -0.025647551180779285,
        -0.04530841247217694,
        0.02973043728625137,
        0.03759133197641963,
        0.009118502938126657,
        0.0147646970004124,
        0.01106060020891151,
        0.038755588556816795,
        0.02518512527325045,
        -0.04686636036459498,
        0.00399755540625666,
        0.022710778237719442,
        -0.039331790673206704,
        -0.02907667275089552,
        0.0025849217597086675,
        -0.010896373001295374,
        -0.008727106515664867,
        0.04433707390683313,
        0.0011283619121804588,
        -0.036634982186507674,
        0.019019937680016454,
        0.04502785322053424,
        0.024091123685316684,
        0.006322974894836402,
        0.021586771762887695,
        0.04069835682721015,
        -0.02450348244663697,
        -0.008314691242027446,
        0.03752596875567608,
        -0.007080941500894159,
        0.043207550901192444,
        -0.04229153646355262,
        0.02880862652125106,
        0.037240308572735345,
        -0.0316650971893429,
        -0.04139307014444301,
        0.014618885262823868,
        0.04661023161255449,
        -0.020269504760326306,
        -0.028995738582112043,
        -0.042208548503541755,
        -0.003204813954810062,
        0.03496178397518296,
        0.0010304600968607614,
        0.019049072725355803,
        0.014130935988808827,
        0.04252846816139476,
        -0.010375492328318105,
        -0.03563141032452994,
        0.02567643816856354,
        0.010443806631480106,
        0.03900309187678779,
        -0.009785973276991407,
        -0.0019039216583185306,
        -0.020937827223319317,
        -0.039196704931044254,
        -0.030899169287145815,
        -0.01662462864889431,
        0.03230794178398948,
        -0.01106611978997255,
        -0.03877386739704271,
        0.042452783015632566,
        0.03493137758373148,
        0.0043229395799878655,
        -0.02356073635545678,
        0.025525421829186306,
        -0.0004704003319632216,
        0.037696831190218376,
        0.04144826884847256,
        0.031854418915231116,
        0.02819837723728123,
        -0.022923586742936385,
        0.009794047629866114,
        -0.02377948913213572,
        -0.022219777252107664,
        -0.017173602043537208,
        -0.028601442610400773,
        0.03627542642529192,
        0.03294950447199507,
        -0.00446824075038329,
        -0.016661239699736756,
        0.03944523085267055,
        -0.013032397003870662,
        0.02713076599627437,
        0.021470861188282817,
        -0.03787793751357751,
        -0.027774355146816195,
        -0.005137612259636988,
        0.034823583071415094,
        0.04723231380105605,
        0.010405453455173087,
        -0.03324112310519592
      ],
      [
        -0.025313306196980932,
        -0.02196335232183781,
        0.023002412166093472,
        0.00192125646894215,
        0.0129839882245234,
        0.005628996329604558,
        -0.0404918192965759,
        -0.0026672012837477893,
        0.045171438118599,
        0.026379570439183275,
        -0.034335813212406696,
        0.03670218308899086,
        0.04118920841834575,
        0.032600529433649925,
        0.024302084879557168,
        0.029538614043281897,
        0.0007327781662956824,
        0.025270170484104387,
        0.006590204475594606,
        0.033575735892978645,
        0.038591791161552015,
        -0.025161815246220437,
        -0.03729534622982182,
        0.004543986224761635,
        -0.013358412995632037,
        0.026658871029666624,
        -0.034431612092086235,
        -0.026285767417596438,
        -0.03098458450427639,
        -0.037379482747091394,
        0.014596561706729051,
        0.03410746386647222,
        0.022349149022022518,
        0.03169511923074031,
        -0.02320294953709783,
        0.03969154547365091,
        -0.014209990221433029,
        0.0008950674906060064,
        -0.04305389345694576,
        0.017902405259174442,
        0.019268566504801906,
        0.04368536609899595,
        -0.00010851679824132685,
        0.006261215892442661,
        0.04103283339553832,
        0.00397732765704843,
        -0.009137264329715839,
        -0.04366621669124257,
        0.028650409829892164,
        0.028547700413071555,
        -0.03266531905150576,
        0.019362886854305567,
        -0.04557607604371309,
        0.019996155364938133,
        -0.015733357405214136,
        0.0007579545320665496,
        -0.01240848698118503,
        0.008020294401122046,
        0.01411185614094399,
        0.012075563107736647,
        -0.04117394548764703,
        0.012531001569342008,
        -0.04387638085603691,
        0.02029395232379875,
        0.03497015218661049,
        0.02834175700576343,
        -0.03815018365609815,
        -0.022194526674503764,
        0.025923275372823393,
        0.015938400049358103,
        -0.004252092883259317,
        0.00039481104924028395,
        0.029333251410177417,
        -0.0018555555938611589,
        -0.01976635112396337,
        -0.008465411708960898,
        0.04123311021960427,
        -0.014091124707434817,
        -0.022606813745435616,
        0.023124995382209378,
        0.010444539861546838,
        -0.031146203190364246,
        0.03331963830869984,
        0.004923465221647789,
        -0.04122210375835056,
        0.03971494127861337,
        -0.03446402813012228,
        -0.03640065676618321,
        0.00919840945571575,
        0.04188139117655424,
        0.0027213668579640095,
        0.019551863180644433,
        -0.005518899236322408,
        0.009409278748608585,
        0.04270792750082475,
        0.027614150241330924,
        -0.02220121863620434,
        -0.012028024912910246,
        -0.042955698114879,
        -0.03591202361160163
      ],
      [
        -0.0310728989226951,
        0.0006274879139059869,
        0.03144079729133799,
        -0.024406469922899254,
        -0.04201415680412206,
        -0.013017620639203259,
        -0.007930081955963649,
        -0.029950499703651504,
        -0.02229228857660397,
        -0.010101531865665786,
        0.021250175952693066,
        -0.04657404580507676,
        0.030948669617563717,
        0.017777444893497512,
        0.025806332769808954,
        0.04555104513904109,
        0.04012407600160151,
        0.022730947454282505,
        -0.04131354816937429,
        -0.039923352718701594,
        -0.043066173846686664,
        -0.0003027027388676152,
        -0.0033481175621468246,
        0.014864700635236807,
        -0.04475073610495415,
        0.019467434189859457,
        0.04517483908428712,
        -0.03572694518400541,
        0.020754284906545507,
        0.007209652637834176,
        -0.030786553927395443,
        -0.03986255731609766,
        -0.04341983424357464,
        -0.03828456170620446,
        -0.043879608497721725,
        -0.006354320867738325,
        -0.00015171127021293085,
        0.004559040568166454,
        -0.0106885441940035,
        -0.02581479653575397,
        -0.01763590550068958,
        0.031063191898136895,
        0.025008525971252502,
        -0.024546381989322515,
        -0.011275079303119438,
        0.031273278761409624,
        -0.004324050637620017,
        -0.04284230471941933,
        0.014644962735713585,
        -0.009582682724396234,
        0.04181262751458756,
        -0.0401356203278448,
        -0.017331342552401815,
        -0.008938731435459505,
        -0.005894471562298598,
        -0.04360201298370895,
        -0.00780395881201737,
        -0.008664394093719743,
        0.01279916305535964,
        0.044219210299249606,
        0.04326772172260767,
        0.030570399893696185,
        -0.031025672140232104,
        0.033426190684226295,
        -0.010036398466816598,
        0.027881628676011093,
        0.0257910556694612,
        -0.03677259128357215,
        0.045965117067294795,
        0.0043566117234371746,
        -0.016862417393611214,
        0.035825819708705776,
        -0.0055354908300460975,
        -0.005808772451484875,
        -0.022773218181788596,
        -0.010555433929361176,
        0.01715595528638247,
        -0.026874556636824046,
        0.033155651619661775,
        -0.00800432930937415,
        0.017849227765329767,
        -0.017094799730216013,
        -0.03344098624049558,
        -0.015288233453294988,
        0.04228242586792145,
        -0.017415519005140757,
        0.04610064790263178,
        -0.017938360025042923,
        0.03699729519970677,
        0.033972915438907625,
        -0.03640276007785599,
        -0.04567165675854944,
        -0.02796499965339371,
        -0.047446217621157014,
        0.007297658301900572,
        0.009207688271702404,
        0.04700800052771805,
        -0.026719008761248015,
        -0.01981216417199301,
        0.027329206953383877
      ],
      [
        0.04357200162164911,
        -0.013790234564800618,
        0.01912569588858916,
        0.029107650799784616,
        0.032207718676920086,
        -0.017750381474712876,
        -0.015841204551069583,
        -0.018978383765936274,
        0.04389467772824173,
        -0.008655085685786741,
        -0.02434195791802577,
        0.020593530366127905,
        -0.017224897795953008,
        -0.01227007339697095,
        0.015988311658863243,
        -0.03571278461480618,
        0.0004670887968333594,
        0.00879718064811922,
        0.028480365802694647,
        0.041710615561806365,
        -0.04128283141255755,
        -0.04391930539330158,
        -0.02000693665238517,
        0.017198260524359073,
        0.020855450956380025,
        -0.0293409355237684,
        -0.026717778617447438,
        0.01163822238303971,
        -0.04469152979364642,
        -0.04057512852178723,
        -0.04430781455371285,
        -0.04478004262394567,
        -0.014742095574965789,
        -0.022053765108767866,
        -0.024123078011053983,
        -0.03734274020452674,
        -0.04051877034375754,
        0.024116672699098785,
        -0.020344162453045548,
        -0.01586373181722369,
        0.035100208389397904,
        0.021431960035430905,
        0.0341836724171913,
        -0.0035333987393469874,
        0.009715539092080143,
        -0.028159757079033332,
        -0.02789632504195981,
        0.02377209143069003,
        0.006003887916616462,
        -0.02479572500625474,
        0.008154828825298869,
        3.895776305226506e-05,
        -0.002797730744526767,
        -0.016547173911530513,
        -0.017331949598583297,
        0.011224176820373948,
        -0.012455149149854785,
        -0.0002788768728152303,
        -0.037720907063904574,
        0.018316816401795354,
        -0.03532085315657459,
        0.01580936743653816,
        -0.02510200048939612,
        0.04478300594166835,
        0.027234783854529862,
        -0.03784841093665899,
        0.023818793792628305,
        -0.03383716433562126,
        -0.04265204994621195,
        -0.005631599688697289,
        0.031753301200889456,
        -0.02985022634339023,
        -0.024080026908015497,
        -0.010491014197127098,
        -0.003281024798644601,
        -0.04049805191239483,
        -0.042197911407275246,
        0.02437805411359147,
        0.022157443826571026,
        -0.0016558512735139765,
        0.007441637178845684,
        0.04512391708544721,
        0.03724902195548242,
        0.03659038201444621,
        0.025235144833319463,
        0.037000521860772635,
        0.03331673484791169,
        0.003921829983459728,
        0.023881661875683344,
        0.0053733791035339585,
        0.015065524821252407,
        -0.044928034917422296,
        -0.038428589168169686,
        0.010079443926104907,
        -0.019408763091339615,
        -0.03040579818945982,
        -0.030366055529547,
        -0.026025506757446755,
        -0.01037226267769104,
        0.0472316829867549
      ],
      [
        -0.00479552158067216,
        0.0042672081652084855,
        -0.02043807178208615,
        0.04055626978463136,
        0.006916935125285238,
        -0.04592766517281842,
        0.03193172731185855,
        0.016992478726273727,
        -0.042762576815714576,
        -0.037296051507568,
        0.0150358878972117,
        -0.03501025122258455,
        0.011120582549233649,
        -0.023897230452966364,
        -0.017224901930390384,
        -0.023312109602469065,
        -0.012402813506793018,
        -0.047447474397698974,
        0.005475547465566963,
        -0.03750701046930506,
        0.01444887011005382,
        0.0030429551916372672,
        0.027866420973546347,
        0.002400430572651951,
        -0.023668650541649298,
        0.03640992118262757,
        0.016149124218359883,
        -0.02160919808230004,
        -0.006163144682033369,
        0.02674981648937277,
        -0.007169385372866819,
        0.04608745995394024,
        -0.022210636893114595,
        0.024646217209430447,
        0.02748550375843887,
        -0.0449886297754485,
        0.014121628880539867,
        0.016189663944839977,
        -0.007273414666731911,
        0.006344390540011864,
        0.033137204891678276,
        -0.02863872433204267,
        -0.035187841934134795,
        -0.00954870699378097,
        0.03310898568914202,
        0.007614703387740729,
        0.02541160895400181,
        -0.022429382626075595,
        0.006936507088061096,
        -0.008923606126782344,
        -0.02053529282470084,
        -0.04399257426931203,
        0.035604981140926674,
        -0.043181410250485705,
        0.0019434978809760772,
        -0.02648220750823716,
        0.012917197033164218,
        -0.008082851524549437,
        0.010242256581018787,
        0.030137459548566007,
        0.027718230873947904,
        0.028543921992851908,
        0.028454140947573356,
        -0.028015186870655885,
        -0.0160958974303164,
        0.007950078843532717,
        -0.02237745136264468,
        0.011253771956338286,
        0.009584055812526717,
        -0.0267122905554801,
        0.006861079810377623,
        0.024020571716986166,
        0.03048532469124094,
        -0.03569562692732346,
        -0.03822870928411881,
        0.005697037398605895,
        0.04463571115888305,
        0.0035033287547225635,
        0.01303395547301015,
        -0.028813616578660342,
        0.016892619532198627,
        -0.023780099334239583,
        0.047500478171875804,
        -0.004993917885194607,
        -0.0008252268059890802,
        -0.013184399719705406,
        -0.012510638829695985,
        -0.008001979025260526,
        0.019658845262270234,
        -0.02643566122776802,
        -0.043645016190718755,
        -0.010185584366464138,
        -0.014581990136223355,
        0.024111999966904354,
        -0.029721066716967774,
        0.041469055309980664,
        0.029281295177760697,
        -0.0017114540111271928,
        0.03774422205506005,
        0.03342812643384249
      ],
      [
        0.015626106719591755,
        0.03512100514846666,
        -0.038451798380396626,
        -0.03005635585596829,
        0.022680868594382477,
        0.0014960130981769904,
        -0.026088935854481722,
        0.020497508271576117,
        -0.01705798014572744,
        0.0360532646569715,
        0.046542187140958764,
        0.04231817165515646,
        -0.02958413984747455,
        0.015942856080539452,
        -0.03753151261400625,
        -0.025241531869233072,
        -0.03996542179847964,
        0.017765536502739977,
        0.01623442736449146,
        -0.03222877121980659,
        0.028324314651803652,
        -0.025473330835328784,
        0.023056055464484967,
        0.024480553389114288,
        0.03905816562479914,
        0.03104802763587725,
        -0.029999520559714193,
        0.033271944856597874,
        0.03438149476892618,
        -0.04701278249992118,
        -0.017779543879304277,
        0.016588283548789502,
        0.02928355590456057,
        -0.04193050833683763,
        -0.044876208004955655,
        0.006787457052273543,
        -0.03266673678270921,
        -0.0033344731477695567,
        -0.02147521681011656,
        -0.04534597102898646,
        -0.008653830832119428,
        0.041717851397821,
        -0.0016921475867237045,
        0.031954246394600164,
        0.007891829229023047,
        -0.001496198172028009,
        0.0029821717243392115,
        0.006899615509159191,
        -0.007773157075513237,
        0.038592713379116454,
        0.01934481829688781,
        0.016846346710576412,
        -0.047285000331469644,
        -0.030909356622768572,
        -0.028586390240418712,
        0.0030586516008233875,
        -0.020330918059327574,
        0.009071308224125236,
        0.037143824490974635,
        -0.01893370247431866,
        -0.012767208798740876,
        0.04288775843399413,
        0.014910086971969261,
        0.01796119244152754,
        0.039403839951958355,
        0.009948747177596294,
        -0.02212052361985513,
        -0.03235470513907226,
        0.011196801216444669,
        -0.03623762491733736,
        -0.004775527971165347,
        0.04279741080409048,
        0.03701648786049961,
        0.027321552294876247,
        -0.002668127996487649,
        -0.024197847571115857,
        0.020326430580228354,
        0.0005310634982313122,
        0.024319064192394095,
        0.016876041572399688,
        0.01808577946263433,
        -0.006769946342740944,
        0.03522627966327258,
        -0.012953843715354966,
        -0.010197272596500514,
        -0.031158914870825033,
        0.015383937556423217,
        0.022906085229186617,
        0.02509849920223592,
        -0.03698948717068647,
        0.03740555692475177,
        -0.015469268931838072,
        -0.04492130218048179,
        0.015612023295942542,
        -0.03534953597250769,
        -0.0003701830685812524,
        0.03659092851211953,
        -0.018017670446646216,
        0.016537781811159113,
        -0.03942324990343376
      ],
      [
        0.03640011779452528,
        -0.03389543372443067,
        -0.015992322537427533,
        0.003470352463845894,
        0.024375803160362607,
        0.024907154822368945,
        0.00863562969546086,
        -0.027835785083582275,
        0.00977232861397881,
        -0.038566709078568906,
        -0.01813434631905635,
        -0.03292806653543142,
        -0.004643181925538799,
        0.039562898678044287,
        0.03969979103662914,
        0.01517007479771316,
        -0.030680525736303876,
        0.03534515446882334,
        0.02166164006627539,
        0.0340421280588959,
        0.04546257428681733,
        -0.04042229946231389,
        0.012488281217830677,
        -0.018013950040549613,
        0.038882835374272236,
        -0.03584356675941665,
        0.03659889599002964,
        0.045604151238068276,
        -0.03507929180659146,
        0.044425583719050345,
        0.022983726804177207,
        0.006456689095225897,
        -0.022640247165889204,
        -0.029271824938113308,
        0.0295991571926893,
        -0.02078692167331765,
        0.029230969245026515,
        -0.04488934263567737,
        -0.006586284967122025,
        -0.0017140360508192468,
        0.0016654304589494781,
        -0.009930887592084008,
        0.026175157200478708,
        0.021542289123732565,
        0.038571962681193284,
        -0.04131351071035832,
        0.03514780937995161,
        -0.04518690665545313,
        -0.015235358259633224,
        0.030554679660960583,
        -0.034663856349326456,
        0.04658105447201447,
        -0.036482224003744984,
        0.008381336321309673,
        -0.005760828685214929,
        -0.025841677141661183,
        -0.0035083338525694393,
        0.0021819199565981965,
        -0.015683610178179312,
        0.04698864003874339,
        -0.000989900857496158,
        -0.0029633109596274867,
        -0.04208057063647825,
        -0.013344812555262054,
        -0.04644025392014436,
        -0.0026225695509278953,
        -0.010727708515755031,
        0.03562905056556441,
        0.013319354947148802,
        -0.011891258390051132,
        -0.0005949833541548275,
        0.030195081756120776,
        0.019746358269552226,
        0.026239325121120823,
        0.03126761615453799,
        -0.0007718292550748849,
        0.01895875570549385,
        -0.023942237254036932,
        0.030347904269936925,
        -0.007333290231214944,
        0.0471483126982922,
        0.03625421626176457,
        0.02552766509917945,
        -0.009529527752589632,
        0.03473938883859248,
        0.03374207766679026,
        -0.0005046999801427035,
        -0.02985692073576849,
        -0.02868254806348904,
        -0.01258752674407175,
        -0.01193806483743244,
        -0.044072031592821796,
        -0.0015766793227255454,
        -0.007346238623160983,
        -0.015199408462202479,
        0.025163703605960392,
        0.033329918459301,
        0.024613496918678833,
        -0.023454905050933162,
        0.011474535682543427
      ],
      [
        -0.00577421379701289,
        -0.015449024651529746,
        -0.03646429117370841,
        0.04331410508622333,
        0.046788236583899544,
        -0.015149614566279208,
        -0.012710710942123634,
        -0.01708987339659182,
        -0.004926985754329732,
        0.03223075225232533,
        -0.03457025408556739,
        0.008258789805926384,
        -0.008049473585390765,
        -0.010570220959347017,
        0.014225522356300568,
        -0.025425712306782065,
        -0.04236314227757132,
        -0.03098836834121802,
        -0.025321451585367357,
        -0.017627735911017805,
        0.04659905482320221,
        0.00780482786198208,
        -0.03549212528839468,
        -0.006345354744987142,
        0.010828603434826077,
        -0.04441235642069812,
        0.009451756280451418,
        -0.01901080352592457,
        0.007567126721271549,
        0.03669771862359575,
        -0.0030786956519753277,
        0.012962248228188278,
        0.03462509238268841,
        -0.027483607237283953,
        0.03343777372289465,
        -0.031132782640781884,
        0.010105902254344039,
        -0.03723780737982876,
        -0.0030164260811916892,
        -0.04138307567201339,
        0.023804092109335175,
        -0.003938528242834769,
        0.0404654274647062,
        -0.00521962447670481,
        0.004556687845559434,
        -0.009055040428997532,
        -0.006829596353467371,
        0.0005736539275712773,
        0.018379086882845532,
        0.011141401698086594,
        -0.025104938381877998,
        0.006744747921127589,
        0.046913897393578326,
        0.02414287347058154,
        -0.011399613149901344,
        -0.013802238140704484,
        0.038065053930465546,
        -0.027024617909662603,
        0.031680081782710874,
        0.02430265412285087,
        -0.045015821268859946,
        0.010268142205612752,
        -0.022898655922612927,
        -0.008341283989049672,
        -0.03626735627279118,
        -0.013020243374382458,
        0.023818434039775183,
        -0.010284374240411615,
        -0.010668744499673352,
        0.02332840490885287,
        0.015535307854384664,
        0.029167954606639214,
        -0.03904685584183093,
        0.004905881545032133,
        -0.0007087305444316516,
        0.04342143193831064,
        -0.025478577059573477,
        -0.016124610386374867,
        0.030835921861715014,
        -0.045109132044709795,
        0.034274183547016265,
        -0.0024087848902339735,
        -0.047430916636374346,
        0.036160913367114265,
        0.021678809002060363,
        0.006766551673346705,
        -0.041087050611400625,
        -0.022997174570112824,
        0.025865902465343857,
        0.027919669808229023,
        -0.03643762374870497,
        0.027981404889208906,
        0.04563844586463648,
        0.018126240569525994,
        0.004412610147347454,
        0.015159786344481087,
        0.007801446611242129,
        -0.012587033708138745,
        0.026119919456606015,
        -0.011440562502750126
      ],
      [
        -0.034644335202012995,
        0.01522988962298028,
        0.04045018425974043,
        0.03587684968305317,
        0.004042354364504042,
        -0.03705727813833206,
        -0.003205367059734535,
        0.016416275974282326,
        0.0011760843235718468,
        -0.012938075891539572,
        0.030908961157067278,
        -0.006743616310699798,
        -0.01178601848411846,
        0.003969906959549002,
        0.03528207079521353,
        -0.04088184455599559,
        0.03240962237785936,
        -0.03492582555477141,
        0.04566722488364895,
        -0.018833393404124397,
        0.018193944732206736,
        0.04041030305641675,
        -0.047196138077472624,
        0.031591418629186206,
        -0.023142945876826714,
        0.00676132879766096,
        0.02627077868964336,
        -0.02332593041291982,
        -0.019609915558544272,
        0.0022955562267504338,
        0.012023555051574606,
        -0.021884268578439198,
        -0.047277658041023886,
        0.03777643852463199,
        -0.02623628725196952,
        0.0029755802232760923,
        -0.021322429991459068,
        -0.025028864396443574,
        0.03711256966922178,
        -0.028662820352700107,
        -0.014515413845591876,
        0.028465830928718794,
        -0.026710994642266207,
        -0.003163141925787318,
        -0.001583857783079041,
        0.01117705602277448,
        -0.03444028530247729,
        0.032009503660681164,
        -0.008743983602768138,
        0.005609477565395964,
        -0.037701771804811025,
        -0.04204008509455734,
        -0.01555922936537631,
        -0.016730510232477885,
        -0.02413950128323644,
        0.03557628060848801,
        -0.03611718199332128,
        0.01778199822664033,
        0.03405545077120092,
        -0.04459696779340981,
        -0.018240704954703927,
        -0.0369707983064308,
        0.005961415066406824,
        0.011259880435359824,
        -0.01595860371408918,
        -0.005983475841696896,
        -0.04047997715433997,
        -0.04688241303513272,
        0.030145053295376492,
        -0.035953902325558056,
        0.046103993766100984,
        0.010998417615571628,
        0.04551594850811074,
        -0.015479535326258932,
        -0.021875869704726467,
        0.018387136768787657,
        -0.03974398488589786,
        -0.032064084057080465,
        0.03026482757792,
        -0.01057081188380669,
        0.03906844296359774,
        -0.0031434266208950554,
        -0.02926129253952475,
        -0.014436477927630389,
        -0.0114741042172374,
        0.03483006391518829,
        0.003754161194184067,
        -0.017229151697075354,
        -0.02912805317455393,
        -0.024481171912358886,
        0.014000360093935618,
        -0.030743843556214536,
        0.03337556191607453,
        0.004832501691636539,
        0.039320518934639455,
        -0.011880591698056499,
        0.04602990949274584,
        -0.007707614988142198,
        -0.006860719323990027,
        0.026083940660801386
      ],
      [
        0.03815992739407454,
        0.012306723714886376,
        -0.027342617919535787,
        0.019224413403706765,
        -0.03695307413394374,
        -0.017035948007492533,
        -0.01775332671304753,
        -0.013513767280149264,
        0.04552665752135885,
        -0.044545273805280935,
        0.00534990328703213,
        0.010056842300858848,
        0.019712509086894148,
        -0.030460138596074316,
        0.002543897645635351,
        0.03539739466588057,
        0.02688538874412097,
        0.01813283178182246,
        0.040856026338069965,
        0.018397698337435747,
        0.029544077563838048,
        0.028203043477192352,
        -0.002541591437959658,
        -0.016115448984003043,
        0.03238956266790178,
        -0.02978834176383102,
        -0.03432347082271792,
        -0.026452807961911993,
        0.02158592059251781,
        -0.014089196572835685,
        -0.031232478356227066,
        0.011101385423067739,
        0.017360756000397038,
        0.04499147334183948,
        0.005462539535136484,
        -0.005769591987916872,
        0.03083990041692478,
        0.022425452894880418,
        -0.025193685629095634,
        0.010117870535243082,
        -0.03356001214496513,
        -0.028410397280489736,
        0.016327798893431104,
        0.036614636140634635,
        0.01512556493840144,
        -0.036701358502361524,
        -0.02391525428099034,
        -0.04707782146260012,
        -0.01746911504458005,
        -0.003699134487754447,
        0.04341695102485539,
        -0.04649444364101461,
        0.012540239733135257,
        -0.02638268706459184,
        0.031873101981335104,
        0.03806918529539907,
        -0.04648261736927801,
        -0.04048404257484763,
        0.04337981501971357,
        0.01793982030866539,
        0.03057899934156518,
        0.032758280316307634,
        0.03308992307387338,
        -0.030518047568042213,
        -0.03542411538686086,
        -0.009133938419463852,
        -0.007402242627839911,
        0.03244480806026104,
        -0.01917488598424768,
        0.028128767023547382,
        0.04637431476315156,
        0.045705856481804794,
        -0.03975239153538965,
        0.022937664230961947,
        -0.0032278007609674517,
        0.0012758369678834707,
        -0.016845162138825722,
        -0.01411077326482889,
        -0.010613697603593814,
        0.026376096107304473,
        -0.013350677154929713,
        -0.043353283168596116,
        0.02788085113155512,
        0.006475726508250571,
        0.04738337616483269,
        0.02580633026319049,
        0.03797196329541193,
        0.019575942115494613,
        0.03322626453120536,
        -0.007321751068966919,
        0.0124662855202697,
        0.03906948797363348,
        0.019082673406021863,
        -0.01115530663141855,
        0.025867704930526883,
        -0.04668241752010262,
        -0.010955926681656543,
        -0.011307646784974482,
        -7.536582609707998e-05,
        -0.03805026429047171
      ],
      [
        -0.030836569768109737,
        -0.007274923826411546,
        -0.03699918731936886,
        -0.034015490551717334,
        0.022980708112900414,
        -0.026185761423795074,
        0.025100086845527402,
        0.0462072272201014,
        0.045211469374084476,
        0.010635243745456859,
        -0.026003539507378794,
        0.04581978287863487,
        0.008338738461879006,
        -0.030911549358901516,
        -0.027773798892509367,
        -0.03091848621620882,
        -0.01414355967425784,
        0.03508199213788977,
        -0.036709959926628045,
        -0.03569772411448587,
        -2.8492412270519387e-05,
        0.04365687731450155,
        -0.04127621790386873,
        0.021637043711940945,
        -0.02844833039116008,
        -0.020359180171331176,
        -0.04311401977547276,
        -0.03484813908336188,
        -0.027763195981712358,
        0.03358505776411938,
        -0.013159710524674724,
        0.02174757449625924,
        0.008921959379052376,
        0.021685660901143385,
        0.03106516518271891,
        0.0007489182832628664,
        0.044535709360337225,
        -0.036811152180385213,
        0.02723765405460146,
        -0.010986107256745457,
        -0.02081178123057428,
        0.011123003467531239,
        0.007131530267688652,
        -0.005662629714263508,
        0.03316893104085438,
        0.029761903439400092,
        0.018608710810783788,
        0.04428992941831144,
        0.04226058217803903,
        -0.03139532794625252,
        -0.02724704052854742,
        0.016477447015371953,
        0.035215266773245955,
        0.028136931583470633,
        0.0020095955501456763,
        0.0033417787998270714,
        0.04516247256335259,
        -0.01018136941908896,
        0.020523162609039265,
        -0.021913587995198974,
        0.018323873918106536,
        0.031358763766879065,
        -0.044237385336443405,
        -0.009434384946461077,
        -0.02278728142557865,
        0.014201171856810833,
        0.04208646061137091,
        0.0403754741158811,
        0.029718943371836996,
        -0.027752434241299317,
        -0.005019922768043574,
        -0.03777300234022257,
        0.0045134092947407955,
        -0.001646655041783587,
        0.0209869251197453,
        -0.018164390908864698,
        0.03250870135981409,
        0.017478474597964075,
        -0.021140148683342914,
        0.030065329370861347,
        0.042125361629866534,
        -0.039912876621150305,
        -0.023088643948314898,
        -0.04197253166258715,
        -0.010942821558694011,
        0.026806008538501427,
        0.03010373531360499,
        -0.038783541598873504,
        -0.019880969216326736,
        -0.0034820142738676775,
        -0.03639542634768464,
        0.031275096722700374,
        -0.010669391346122886,
        -0.03034456757017387,
        0.04685414083189352,
        0.0006555381428661813,
        -0.04314263254272669,
        0.0055172306489631815,
        -0.0064716335123019145,
        0.011232175868149306
      ],
      [
        -0.006023919671669878,
        0.044672115110892356,
        0.03000363077386455,
        0.04520345197936978,
        -0.027732030026033267,
        0.017782478791629974,
        0.01409967000346561,
        0.04554422261188618,
        0.044747224561478095,
        0.03717798270452167,
        0.00024281507314812616,
        0.004082892802158045,
        0.027349519408559394,
        -0.019247952590864596,
        0.02397271815243717,
        0.020956384818906087,
        -0.03503947046827549,
        0.030042158229668794,
        0.01723125035526827,
        0.026014720210650176,
        -0.0006542673660752299,
        0.014106865598037609,
        0.0065976614698550155,
        -0.04656460972669592,
        -0.043505311593907275,
        0.02645953682711571,
        0.014542719422444842,
        0.04568775909092714,
        0.0038401400718012205,
        0.0016973764942773517,
        -0.024900460386417033,
        -0.01683388177278442,
        0.0038306183727484814,
        -0.0162947626866883,
        -0.01433458394298102,
        0.040244001916573215,
        0.018605579362521406,
        -0.037411346026035144,
        0.014390259593553657,
        0.029925534280819746,
        0.030624221116996465,
        -0.023778849515915364,
        0.007719800502884675,
        -0.0374771985803277,
        -0.03713872990261692,
        0.029032318234253694,
        -0.018677731977504768,
        -0.025499530818600145,
        0.0009147308948380167,
        -0.002744221230298328,
        -0.015625267282744982,
        -0.03725483500726491,
        0.006743101159061734,
        0.0004554826393983186,
        -0.03875412791026545,
        -0.024210640639257253,
        0.03810213690917377,
        -0.000584619224898099,
        0.04579642048788895,
        0.024425890729029773,
        0.02456417369198896,
        -0.02021516753383443,
        -0.01930120609754579,
        0.03248644662039246,
        -0.01123935947486622,
        0.031968389431094556,
        0.005372134406713757,
        0.008098634881746959,
        -0.04012651995025276,
        0.026519165323195783,
        -0.031072523529293627,
        0.03254464189373153,
        -0.02773032042640724,
        0.011314167279358371,
        -0.025109891169726964,
        -0.04276201229013936,
        -0.01827728792998855,
        0.040532231303151846,
        -0.005533880036393271,
        -0.01767826935720638,
        -0.019005696871965502,
        -0.028246772818401013,
        -0.04543630205709067,
        -0.047268354688343554,
        0.018932438345975532,
        0.025802422163689585,
        0.04193033373064365,
        -0.03349317775419433,
        0.0017951870731235087,
        0.021808166756986217,
        0.04091896129198212,
        0.002428689415106131,
        -0.012141272155465226,
        0.0019771662859575014,
        -0.009100789952243341,
        -0.01914960572553613,
        -0.034491385709084915,
        -0.025024046522362155,
        -0.00730737837475967,
        0.028644214269570593
      ],
      [
        -0.04643008262662866,
        0.00014558829873002714,
        0.016225329773355727,
        -0.02572141082172769,
        -0.005194318574177724,
        0.027160988663243974,
        0.03958546483426693,
        -0.024607272739486888,
        -0.04132161172423853,
        -0.032375807939932284,
        -0.002630761526173812,
        -0.035939334452829236,
        0.02815921363692695,
        -0.03454676510989199,
        -0.019854958686986793,
        -0.009391397162094941,
        0.0067868349347315225,
        -0.005260394643721385,
        -0.012225247460291805,
        -0.024956385431279305,
        0.023193163416247112,
        0.030682687640443372,
        0.029181183304002597,
        -0.030588802890750968,
        0.0343566809081284,
        0.020555951299294554,
        -0.028976225159256574,
        -0.005196775609232386,
        -0.03738031546114498,
        0.0059849162000303055,
        -0.011903568930766576,
        -0.04332799018831161,
        -0.033260293608456774,
        0.02098420333207874,
        0.005282807575484144,
        -0.03607179125186421,
        -0.03527174356916928,
        0.03609269775122256,
        -0.037655155314157605,
        0.02766042216341318,
        0.0128961693378667,
        0.007435153150103248,
        0.042338987352689206,
        -0.004261860616372363,
        -0.010688492154282372,
        0.029571470077904557,
        0.009356237554956097,
        0.03186200816158795,
        -0.03846926322709185,
        -0.04452232581248754,
        -0.025712689286090426,
        -0.009242135999947705,
        0.04443963640684507,
        -0.02451701066631299,
        0.0029675996135975612,
        0.04618517099274419,
        -0.037436552542771395,
        -0.014092038116009446,
        0.007188941136346334,
        0.04548415694051732,
        0.045028946967824696,
        0.017131308811245225,
        0.0441572898418964,
        0.01876923102372015,
        -0.04651116363516798,
        0.01540945786482375,
        0.030862547887498717,
        0.04011747390148762,
        0.004575383768360248,
        -0.008536040487773218,
        0.016231007665491397,
        0.04276096415794799,
        0.0005013785000163971,
        -0.009088251101990186,
        -0.01845796290673925,
        0.034594333743935425,
        -0.007396332897784436,
        0.04681233092353073,
        0.030732725127541438,
        -0.020032709641236903,
        0.03979608040623005,
        0.025094564144209294,
        -0.005625561500413195,
        0.0008267936105981391,
        0.04259738795229693,
        0.01973437797821261,
        -0.04347460448248435,
        0.006594141455461444,
        0.017420757334383283,
        -0.04122887882258979,
        0.015203606743541244,
        -0.03617439135461577,
        0.029174214305709132,
        -0.025705631015675075,
        -0.04372608435900329,
        -0.011717100366591671,
        -0.01412693520398945,
        -0.031006683818759248,
        -0.006442072440507869,
        0.026203157268960445
      ],
      [
        -0.02893211117278099,
        0.0015023073094316936,
        -0.03956736459360604,
        0.020143746360077187,
        0.04461825387974543,
        0.025399747319789116,
        -0.038736041501726756,
        0.009748852663972019,
        -0.0054518366372480346,
        0.04604426575270292,
        -0.0182150755495409,
        0.012056116443441662,
        -0.010548017244275945,
        0.032001756180248676,
        -0.0024947118094889456,
        0.04631993977823891,
        0.021048403730296008,
        -0.02931674358885689,
        -0.042414765194336526,
        0.021579413278911885,
        0.026015434702204923,
        0.013331315699918205,
        0.000900891166646965,
        -0.041873526370542896,
        -0.0012148100020292947,
        -0.03715166301008738,
        -0.04400860195223831,
        0.04112191896808536,
        -0.02647153408421958,
        -0.04028595750179638,
        -0.023987725037955838,
        0.04702159870790235,
        -0.0364685100984034,
        0.007062079562998322,
        0.012268163350975551,
        -0.0323104151960854,
        0.022874484618979528,
        0.0278670812320381,
        0.025290338363989678,
        -0.035955004305181185,
        -0.03789184904778709,
        -0.017523141149665983,
        -0.019952231853505652,
        -0.035757430844906,
        0.004981493335479059,
        -0.015036199711870639,
        -0.024737723924580703,
        0.0014508145561739113,
        -0.029495212695115132,
        -0.025091879594781662,
        0.01781464255961441,
        -0.036717263028300196,
        0.0384738600016995,
        0.023286755286811435,
        0.005247998342117376,
        0.02421017936464181,
        -0.008793990916599742,
        0.0037938138049255,
        0.030856321894665056,
        0.005113953854585654,
        -0.02103593830016336,
        -0.02743858278445658,
        -0.041540769695407535,
        -0.01625403192250331,
        -0.04581725043091433,
        -0.035137388736594,
        0.0019433208231000654,
        0.009563712705015805,
        -0.04008434020208383,
        -0.027975591083371464,
        0.04600779343066583,
        0.012414614961658257,
        -0.0207887392631406,
        0.02470010198501353,
        0.0339928548977089,
        -0.014121132222066872,
        -0.045544328918193364,
        0.009176697114402901,
        0.03178129650756232,
        -0.02796263325064133,
        0.02378995785730159,
        -0.021676186028174293,
        -0.017814410842346876,
        -0.0027049636926532988,
        0.04149297092552421,
        0.042016698120157056,
        0.04342264175528118,
        -0.037734419541717946,
        -0.014178498853742049,
        0.03017245261217367,
        0.019796736450819783,
        0.045923570142130526,
        -0.031437663471724976,
        -0.01451843334926626,
        0.0287851967228386,
        0.0330212456473169,
        0.0426002188495791,
        0.017371095859757053,
        0.0018299750231124336,
        -0.01605063229866184
      ],
      [
        -0.005570401058387906,
        -0.008759838579759422,
        0.026998588504070824,
        -0.04576345556724844,
        -0.04562091118289988,
        -0.023373667918036387,
        0.0018387119806437015,
        0.02829483731264041,
        -0.04102411754486824,
        -0.040987090733781935,
        0.034671870471303594,
        -0.013168417911716985,
        -0.012945647279340156,
        -0.043635929732638114,
        -0.022617079532191962,
        0.03355682180307852,
        -0.0323620674439474,
        0.02032613889496491,
        0.043126451958121724,
        0.022113409744418434,
        -0.017240881640647458,
        0.02158832480911805,
        0.012531124005825876,
        -0.04221189264943847,
        -0.04185240656558506,
        -0.008126510320533529,
        -0.019630104201748464,
        -0.006383093057886577,
        -0.027702382849522398,
        0.02007830472861497,
        -0.0023772221382080336,
        -0.007347595058532659,
        -0.036425241668504804,
        0.040453889079867966,
        0.007435135370281797,
        0.03317261122904546,
        -0.005048750796487646,
        -0.03673169345052153,
        -0.011102544110335361,
        0.005806727642408974,
        -0.004107486092312041,
        0.007033125052776398,
        -0.011056988945030556,
        0.017480750455518574,
        -0.027385662945478954,
        0.00024363882304970658,
        -0.04564649957013089,
        -0.0006858662630271742,
        -0.04124604067140712,
        0.016858058523619872,
        -0.04256802128388778,
        0.019938996216092367,
        0.03573580700937187,
        0.02259092076431396,
        0.017178138165968637,
        -0.00031057772204457255,
        -0.01782959071331649,
        -0.013700384284207287,
        0.029735590914266682,
        0.0016979191100886372,
        -0.02681712962612736,
        -0.034193273669777036,
        0.021909367719003717,
        0.02425288422362633,
        0.04416412058487556,
        0.02868358320681758,
        0.04612727838414225,
        -0.038715950916736505,
        -0.0416698183512649,
        -0.018304927727368338,
        0.023717560405153375,
        0.03808533555408011,
        -0.0017766576344631782,
        0.017907453462842504,
        0.04656122700428613,
        -0.027475354293930387,
        -0.03776416069642233,
        -0.00228415025968461,
        0.017762301138572145,
        -0.02018009996138375,
        0.043064521059662984,
        0.03378254050311876,
        0.031631714576545435,
        -0.021017422956392355,
        -0.01127773821640512,
        0.03713781385149448,
        0.003252589885231226,
        0.017446461513004958,
        0.03629351154576161,
        -0.026856738238975966,
        0.03291162864148193,
        0.030564985629584967,
        0.028830443408057987,
        -0.027469052477448883,
        0.024149379531591294,
